<?xml version="1.0"?>
<opencv_storage>
<cascade>
  <stageType>BOOST</stageType>
  <featureType>HAAR</featureType>
  <height>32</height>
  <width>32</width>
  <stageParams>
    <boostType>GAB</boostType>
    <minHitRate>9.9500000476837158e-01</minHitRate>
    <maxFalseAlarm>5.0000000000000000e-01</maxFalseAlarm>
    <weightTrimRate>9.4999998807907104e-01</weightTrimRate>
    <maxDepth>1</maxDepth>
    <maxWeakCount>100</maxWeakCount></stageParams>
  <featureParams>
    <maxCatCount>0</maxCatCount>
    <featSize>1</featSize>
    <mode>BASIC</mode></featureParams>
  <stageNum>4</stageNum>
  <stages>
    <!-- stage 0 -->
    <_>
      <maxWeakCount>2</maxWeakCount>
      <stageThreshold>-1.6332083940505981e-01</stageThreshold>
      <weakClassifiers>
        <_>
          <internalNodes>
            0 -1 5 -7.9433903098106384e-02</internalNodes>
          <leafValues>
            9.8156684637069702e-01 -9.8198199272155762e-01</leafValues></_>
        <_>
          <internalNodes>
            0 -1 1 -5.4280735552310944e-02</internalNodes>
          <leafValues>
            8.1866115331649780e-01 -1.</leafValues></_></weakClassifiers></_>
    <!-- stage 1 -->
    <_>
      <maxWeakCount>2</maxWeakCount>
      <stageThreshold>-6.6920347511768341e-02</stageThreshold>
      <weakClassifiers>
        <_>
          <internalNodes>
            0 -1 0 -1.2050986289978027e-01</internalNodes>
          <leafValues>
            8.4615385532379150e-01 -9.8513013124465942e-01</leafValues></_>
        <_>
          <internalNodes>
            0 -1 3 8.7863225489854813e-03</internalNodes>
          <leafValues>
            -9.1307419538497925e-01 9.3747305870056152e-01</leafValues></_></weakClassifiers></_>
    <!-- stage 2 -->
    <_>
      <maxWeakCount>2</maxWeakCount>
      <stageThreshold>-1.6232603788375854e-01</stageThreshold>
      <weakClassifiers>
        <_>
          <internalNodes>
            0 -1 4 -7.4274823069572449e-02</internalNodes>
          <leafValues>
            9.1627907752990723e-01 -9.4973069429397583e-01</leafValues></_>
        <_>
          <internalNodes>
            0 -1 2 -2.0195049047470093e-01</internalNodes>
          <leafValues>
            7.8740465641021729e-01 -1.</leafValues></_></weakClassifiers></_>
    <!-- stage 3 -->
    <_>
      <maxWeakCount>2</maxWeakCount>
      <stageThreshold>-5.0727393478155136e-02</stageThreshold>
      <weakClassifiers>
        <_>
          <internalNodes>
            0 -1 6 1.0906305164098740e-02</internalNodes>
          <leafValues>
            -9.2267137765884399e-01 9.5073890686035156e-01</leafValues></_>
        <_>
          <internalNodes>
            0 -1 7 1.2559594586491585e-02</internalNodes>
          <leafValues>
            -9.1495972871780396e-01 8.7194395065307617e-01</leafValues></_></weakClassifiers></_></stages>
  <features>
    <_>
      <rects>
        <_>
          2 6 16 12 -1.</_>
        <_>
          10 6 8 12 2.</_></rects>
      <tilted>0</tilted></_>
    <_>
      <rects>
        <_>
          4 29 18 3 -1.</_>
        <_>
          13 29 9 3 2.</_></rects>
      <tilted>0</tilted></_>
    <_>
      <rects>
        <_>
          6 0 16 30 -1.</_>
        <_>
          6 15 16 15 2.</_></rects>
      <tilted>0</tilted></_>
    <_>
      <rects>
        <_>
          8 11 4 10 -1.</_>
        <_>
          8 11 2 5 2.</_>
        <_>
          10 16 2 5 2.</_></rects>
      <tilted>0</tilted></_>
    <_>
      <rects>
        <_>
          8 28 18 3 -1.</_>
        <_>
          14 28 6 3 3.</_></rects>
      <tilted>0</tilted></_>
    <_>
      <rects>
        <_>
          8 28 18 4 -1.</_>
        <_>
          14 28 6 4 3.</_></rects>
      <tilted>0</tilted></_>
    <_>
      <rects>
        <_>
          9 17 6 8 -1.</_>
        <_>
          9 17 3 4 2.</_>
        <_>
          12 21 3 4 2.</_></rects>
      <tilted>0</tilted></_>
    <_>
      <rects>
        <_>
          17 0 8 10 -1.</_>
        <_>
          17 0 4 5 2.</_>
        <_>
          21 5 4 5 2.</_></rects>
      <tilted>0</tilted></_></features></cascade>
</opencv_storage>
