<?xml version="1.0"?>
<opencv_storage>
<cascade>
  <stageType>BOOST</stageType>
  <featureType>HAAR</featureType>
  <height>24</height>
  <width>32</width>
  <stageParams>
    <boostType>GAB</boostType>
    <minHitRate>9.9500000476837158e-01</minHitRate>
    <maxFalseAlarm>5.0000000000000000e-01</maxFalseAlarm>
    <weightTrimRate>9.4999998807907104e-01</weightTrimRate>
    <maxDepth>1</maxDepth>
    <maxWeakCount>100</maxWeakCount></stageParams>
  <featureParams>
    <maxCatCount>0</maxCatCount>
    <featSize>1</featSize>
    <mode>BASIC</mode></featureParams>
  <stageNum>11</stageNum>
  <stages>
    <!-- stage 0 -->
    <_>
      <maxWeakCount>3</maxWeakCount>
      <stageThreshold>-1.5028140544891357e+00</stageThreshold>
      <weakClassifiers>
        <_>
          <internalNodes>
            0 -1 13 -3.0819782614707947e-01</internalNodes>
          <leafValues>
            1.8181818723678589e-01 -9.2549020051956177e-01</leafValues></_>
        <_>
          <internalNodes>
            0 -1 7 -2.6273846626281738e-02</internalNodes>
          <leafValues>
            3.2967567443847656e-01 -8.3702158927917480e-01</leafValues></_>
        <_>
          <internalNodes>
            0 -1 47 -5.9982197126373649e-04</internalNodes>
          <leafValues>
            3.4924101829528809e-01 -8.4761059284210205e-01</leafValues></_></weakClassifiers></_>
    <!-- stage 1 -->
    <_>
      <maxWeakCount>4</maxWeakCount>
      <stageThreshold>-2.0198676586151123e+00</stageThreshold>
      <weakClassifiers>
        <_>
          <internalNodes>
            0 -1 30 -2.6215393096208572e-02</internalNodes>
          <leafValues>
            -3.2876712083816528e-01 -9.6732026338577271e-01</leafValues></_>
        <_>
          <internalNodes>
            0 -1 33 2.0404156297445297e-02</internalNodes>
          <leafValues>
            -8.9124846458435059e-01 1.7789220809936523e-01</leafValues></_>
        <_>
          <internalNodes>
            0 -1 31 -2.6159066706895828e-02</internalNodes>
          <leafValues>
            6.7024707794189453e-01 -5.9273153543472290e-01</leafValues></_>
        <_>
          <internalNodes>
            0 -1 29 -4.2703598737716675e-03</internalNodes>
          <leafValues>
            5.7273596525192261e-01 -6.3770818710327148e-01</leafValues></_></weakClassifiers></_>
    <!-- stage 2 -->
    <_>
      <maxWeakCount>5</maxWeakCount>
      <stageThreshold>-1.7359393835067749e+00</stageThreshold>
      <weakClassifiers>
        <_>
          <internalNodes>
            0 -1 42 3.0245110392570496e-03</internalNodes>
          <leafValues>
            -9.0248566865921021e-01 4.4444444775581360e-01</leafValues></_>
        <_>
          <internalNodes>
            0 -1 18 -1.8450331687927246e-01</internalNodes>
          <leafValues>
            4.4900205731391907e-01 -6.8963217735290527e-01</leafValues></_>
        <_>
          <internalNodes>
            0 -1 44 -6.2498846091330051e-04</internalNodes>
          <leafValues>
            3.5849183797836304e-01 -7.9488879442214966e-01</leafValues></_>
        <_>
          <internalNodes>
            0 -1 51 -1.4823192032054067e-04</internalNodes>
          <leafValues>
            3.2824730873107910e-01 -8.4649771451950073e-01</leafValues></_>
        <_>
          <internalNodes>
            0 -1 1 3.5323348129168153e-04</internalNodes>
          <leafValues>
            -7.6288461685180664e-01 3.4418436884880066e-01</leafValues></_></weakClassifiers></_>
    <!-- stage 3 -->
    <_>
      <maxWeakCount>5</maxWeakCount>
      <stageThreshold>-1.9898639917373657e+00</stageThreshold>
      <weakClassifiers>
        <_>
          <internalNodes>
            0 -1 41 3.0468215700238943e-03</internalNodes>
          <leafValues>
            -8.9743590354919434e-01 8.1818181276321411e-01</leafValues></_>
        <_>
          <internalNodes>
            0 -1 19 -5.8568015694618225e-02</internalNodes>
          <leafValues>
            1.5103231370449066e-01 -8.1455534696578979e-01</leafValues></_>
        <_>
          <internalNodes>
            0 -1 12 4.0417060517938808e-05</internalNodes>
          <leafValues>
            -8.8601827621459961e-01 1.9505871832370758e-01</leafValues></_>
        <_>
          <internalNodes>
            0 -1 52 -6.1072962125763297e-05</internalNodes>
          <leafValues>
            2.6943501830101013e-01 -8.5501849651336670e-01</leafValues></_>
        <_>
          <internalNodes>
            0 -1 38 -3.5487549030221999e-04</internalNodes>
          <leafValues>
            3.8208705186843872e-01 -6.9423073530197144e-01</leafValues></_></weakClassifiers></_>
    <!-- stage 4 -->
    <_>
      <maxWeakCount>5</maxWeakCount>
      <stageThreshold>-1.7974233627319336e+00</stageThreshold>
      <weakClassifiers>
        <_>
          <internalNodes>
            0 -1 25 1.2249110266566277e-02</internalNodes>
          <leafValues>
            -9.0926641225814819e-01 2.1428571641445160e-01</leafValues></_>
        <_>
          <internalNodes>
            0 -1 14 -1.3252103328704834e-01</internalNodes>
          <leafValues>
            2.5097969174385071e-01 -7.8689926862716675e-01</leafValues></_>
        <_>
          <internalNodes>
            0 -1 8 -3.9249463006854057e-03</internalNodes>
          <leafValues>
            5.0441193580627441e-01 -5.6127297878265381e-01</leafValues></_>
        <_>
          <internalNodes>
            0 -1 48 1.8142483895644546e-04</internalNodes>
          <leafValues>
            2.3424544930458069e-01 -9.3691647052764893e-01</leafValues></_>
        <_>
          <internalNodes>
            0 -1 46 -1.7488541197963059e-04</internalNodes>
          <leafValues>
            -9.3831682205200195e-01 2.2576978802680969e-01</leafValues></_></weakClassifiers></_>
    <!-- stage 5 -->
    <_>
      <maxWeakCount>4</maxWeakCount>
      <stageThreshold>-1.8329957723617554e+00</stageThreshold>
      <weakClassifiers>
        <_>
          <internalNodes>
            0 -1 39 8.4456019103527069e-03</internalNodes>
          <leafValues>
            -8.9743590354919434e-01 8.1818181276321411e-01</leafValues></_>
        <_>
          <internalNodes>
            0 -1 24 -4.0156569331884384e-02</internalNodes>
          <leafValues>
            1.7451515793800354e-01 -8.1834769248962402e-01</leafValues></_>
        <_>
          <internalNodes>
            0 -1 15 -1.4307168126106262e-01</internalNodes>
          <leafValues>
            4.3180188536643982e-01 -6.3273549079895020e-01</leafValues></_>
        <_>
          <internalNodes>
            0 -1 26 -5.9224283322691917e-03</internalNodes>
          <leafValues>
            5.7410687208175659e-01 -4.7733953595161438e-01</leafValues></_></weakClassifiers></_>
    <!-- stage 6 -->
    <_>
      <maxWeakCount>6</maxWeakCount>
      <stageThreshold>-1.5708743333816528e+00</stageThreshold>
      <weakClassifiers>
        <_>
          <internalNodes>
            0 -1 20 -1.0336386039853096e-02</internalNodes>
          <leafValues>
            1.8518517911434174e-01 -9.0742528438568115e-01</leafValues></_>
        <_>
          <internalNodes>
            0 -1 16 1.1977748945355415e-02</internalNodes>
          <leafValues>
            -6.5650999546051025e-01 5.6661683320999146e-01</leafValues></_>
        <_>
          <internalNodes>
            0 -1 3 2.7284138923278078e-05</internalNodes>
          <leafValues>
            -8.1234550476074219e-01 2.1871000528335571e-01</leafValues></_>
        <_>
          <internalNodes>
            0 -1 4 -2.7264500968158245e-03</internalNodes>
          <leafValues>
            2.4409797787666321e-01 -7.6513367891311646e-01</leafValues></_>
        <_>
          <internalNodes>
            0 -1 34 7.1976305916905403e-03</internalNodes>
          <leafValues>
            -7.4331802129745483e-01 2.8674572706222534e-01</leafValues></_>
        <_>
          <internalNodes>
            0 -1 35 3.5149998439010233e-05</internalNodes>
          <leafValues>
            -7.5649273395538330e-01 2.9814645648002625e-01</leafValues></_></weakClassifiers></_>
    <!-- stage 7 -->
    <_>
      <maxWeakCount>6</maxWeakCount>
      <stageThreshold>-1.8872815370559692e+00</stageThreshold>
      <weakClassifiers>
        <_>
          <internalNodes>
            0 -1 40 -1.7363721504807472e-02</internalNodes>
          <leafValues>
            1. -8.9393937587738037e-01</leafValues></_>
        <_>
          <internalNodes>
            0 -1 28 -5.5213323794305325e-03</internalNodes>
          <leafValues>
            2.6135101914405823e-01 -6.8700718879699707e-01</leafValues></_>
        <_>
          <internalNodes>
            0 -1 49 -1.2840703129768372e-04</internalNodes>
          <leafValues>
            -9.3488401174545288e-01 2.0546407997608185e-01</leafValues></_>
        <_>
          <internalNodes>
            0 -1 17 -2.3722568154335022e-01</internalNodes>
          <leafValues>
            8.1471675634384155e-01 -3.0263921618461609e-01</leafValues></_>
        <_>
          <internalNodes>
            0 -1 5 -1.5620791353285313e-02</internalNodes>
          <leafValues>
            4.8651811480522156e-01 -5.5107396841049194e-01</leafValues></_>
        <_>
          <internalNodes>
            0 -1 43 -3.2698076684027910e-03</internalNodes>
          <leafValues>
            4.2052364349365234e-01 -6.0644406080245972e-01</leafValues></_></weakClassifiers></_>
    <!-- stage 8 -->
    <_>
      <maxWeakCount>5</maxWeakCount>
      <stageThreshold>-1.8288937807083130e+00</stageThreshold>
      <weakClassifiers>
        <_>
          <internalNodes>
            0 -1 2 -8.5717290639877319e-02</internalNodes>
          <leafValues>
            6.9230771064758301e-01 -8.9914369583129883e-01</leafValues></_>
        <_>
          <internalNodes>
            0 -1 22 -3.9019393734633923e-03</internalNodes>
          <leafValues>
            2.9694542288780212e-01 -6.9903498888015747e-01</leafValues></_>
        <_>
          <internalNodes>
            0 -1 9 3.1651074095861986e-05</internalNodes>
          <leafValues>
            -7.5337147712707520e-01 2.8368842601776123e-01</leafValues></_>
        <_>
          <internalNodes>
            0 -1 11 -2.7003430659533478e-05</internalNodes>
          <leafValues>
            2.7348366379737854e-01 -8.1661272048950195e-01</leafValues></_>
        <_>
          <internalNodes>
            0 -1 36 -5.4667332733515650e-05</internalNodes>
          <leafValues>
            3.0220913887023926e-01 -6.8717181682586670e-01</leafValues></_></weakClassifiers></_>
    <!-- stage 9 -->
    <_>
      <maxWeakCount>6</maxWeakCount>
      <stageThreshold>-1.9200083017349243e+00</stageThreshold>
      <weakClassifiers>
        <_>
          <internalNodes>
            0 -1 45 3.0501729343086481e-03</internalNodes>
          <leafValues>
            -8.9753317832946777e-01 1.</leafValues></_>
        <_>
          <internalNodes>
            0 -1 27 -2.3152522742748260e-02</internalNodes>
          <leafValues>
            5.6974524259567261e-01 -6.5062731504440308e-01</leafValues></_>
        <_>
          <internalNodes>
            0 -1 50 8.4520084783434868e-04</internalNodes>
          <leafValues>
            2.5864362716674805e-01 -8.3427006006240845e-01</leafValues></_>
        <_>
          <internalNodes>
            0 -1 10 -1.2939210981130600e-02</internalNodes>
          <leafValues>
            7.5474381446838379e-01 -3.4998369216918945e-01</leafValues></_>
        <_>
          <internalNodes>
            0 -1 37 -2.8335478418739513e-05</internalNodes>
          <leafValues>
            3.8305187225341797e-01 -6.2029886245727539e-01</leafValues></_>
        <_>
          <internalNodes>
            0 -1 6 -3.0531859956681728e-03</internalNodes>
          <leafValues>
            3.3979114890098572e-01 -7.8826361894607544e-01</leafValues></_></weakClassifiers></_>
    <!-- stage 10 -->
    <_>
      <maxWeakCount>5</maxWeakCount>
      <stageThreshold>-1.9408704042434692e+00</stageThreshold>
      <weakClassifiers>
        <_>
          <internalNodes>
            0 -1 21 -3.0746659636497498e-01</internalNodes>
          <leafValues>
            6.0000002384185791e-01 -9.0804594755172729e-01</leafValues></_>
        <_>
          <internalNodes>
            0 -1 23 -1.7809867858886719e-01</internalNodes>
          <leafValues>
            3.9493310451507568e-01 -6.9747990369796753e-01</leafValues></_>
        <_>
          <internalNodes>
            0 -1 32 -1.0698686819523573e-03</internalNodes>
          <leafValues>
            3.9205098152160645e-01 -5.8453893661499023e-01</leafValues></_>
        <_>
          <internalNodes>
            0 -1 37 -2.9107912268955261e-05</internalNodes>
          <leafValues>
            3.1287312507629395e-01 -6.1692053079605103e-01</leafValues></_>
        <_>
          <internalNodes>
            0 -1 0 2.9775896109640598e-05</internalNodes>
          <leafValues>
            -6.4193099737167358e-01 3.3389803767204285e-01</leafValues></_></weakClassifiers></_></stages>
  <features>
    <_>
      <rects>
        <_>
          0 2 2 1 -1.</_>
        <_>
          1 2 1 1 2.</_></rects>
      <tilted>0</tilted></_>
    <_>
      <rects>
        <_>
          0 5 2 9 -1.</_>
        <_>
          1 5 1 9 2.</_></rects>
      <tilted>0</tilted></_>
    <_>
      <rects>
        <_>
          0 9 9 11 -1.</_>
        <_>
          3 9 3 11 3.</_></rects>
      <tilted>0</tilted></_>
    <_>
      <rects>
        <_>
          0 13 2 1 -1.</_>
        <_>
          1 13 1 1 2.</_></rects>
      <tilted>0</tilted></_>
    <_>
      <rects>
        <_>
          0 15 14 2 -1.</_>
        <_>
          7 15 7 2 2.</_></rects>
      <tilted>0</tilted></_>
    <_>
      <rects>
        <_>
          1 8 10 15 -1.</_>
        <_>
          1 13 10 5 3.</_></rects>
      <tilted>0</tilted></_>
    <_>
      <rects>
        <_>
          1 9 14 2 -1.</_>
        <_>
          8 9 7 2 2.</_></rects>
      <tilted>0</tilted></_>
    <_>
      <rects>
        <_>
          1 11 8 9 -1.</_>
        <_>
          5 11 4 9 2.</_></rects>
      <tilted>0</tilted></_>
    <_>
      <rects>
        <_>
          1 12 9 2 -1.</_>
        <_>
          4 12 3 2 3.</_></rects>
      <tilted>0</tilted></_>
    <_>
      <rects>
        <_>
          1 23 2 1 -1.</_>
        <_>
          2 23 1 1 2.</_></rects>
      <tilted>0</tilted></_>
    <_>
      <rects>
        <_>
          2 13 6 6 -1.</_>
        <_>
          4 13 2 6 3.</_></rects>
      <tilted>0</tilted></_>
    <_>
      <rects>
        <_>
          2 21 1 2 -1.</_>
        <_>
          2 22 1 1 2.</_></rects>
      <tilted>0</tilted></_>
    <_>
      <rects>
        <_>
          3 0 4 1 -1.</_>
        <_>
          5 0 2 1 2.</_></rects>
      <tilted>0</tilted></_>
    <_>
      <rects>
        <_>
          4 0 20 20 -1.</_>
        <_>
          14 0 10 20 2.</_></rects>
      <tilted>0</tilted></_>
    <_>
      <rects>
        <_>
          4 7 16 15 -1.</_>
        <_>
          12 7 8 15 2.</_></rects>
      <tilted>0</tilted></_>
    <_>
      <rects>
        <_>
          5 0 21 16 -1.</_>
        <_>
          5 8 21 8 2.</_></rects>
      <tilted>0</tilted></_>
    <_>
      <rects>
        <_>
          5 1 4 10 -1.</_>
        <_>
          5 1 2 5 2.</_>
        <_>
          7 6 2 5 2.</_></rects>
      <tilted>0</tilted></_>
    <_>
      <rects>
        <_>
          6 8 20 13 -1.</_>
        <_>
          16 8 10 13 2.</_></rects>
      <tilted>0</tilted></_>
    <_>
      <rects>
        <_>
          7 4 12 16 -1.</_>
        <_>
          7 12 12 8 2.</_></rects>
      <tilted>0</tilted></_>
    <_>
      <rects>
        <_>
          7 12 21 9 -1.</_>
        <_>
          14 12 7 9 3.</_></rects>
      <tilted>0</tilted></_>
    <_>
      <rects>
        <_>
          7 18 2 6 -1.</_>
        <_>
          7 20 2 2 3.</_></rects>
      <tilted>0</tilted></_>
    <_>
      <rects>
        <_>
          8 2 18 20 -1.</_>
        <_>
          17 2 9 20 2.</_></rects>
      <tilted>0</tilted></_>
    <_>
      <rects>
        <_>
          8 2 11 3 -1.</_>
        <_>
          8 3 11 1 3.</_></rects>
      <tilted>0</tilted></_>
    <_>
      <rects>
        <_>
          8 5 12 16 -1.</_>
        <_>
          8 13 12 8 2.</_></rects>
      <tilted>0</tilted></_>
    <_>
      <rects>
        <_>
          8 10 18 7 -1.</_>
        <_>
          14 10 6 7 3.</_></rects>
      <tilted>0</tilted></_>
    <_>
      <rects>
        <_>
          9 3 4 4 -1.</_>
        <_>
          9 5 4 2 2.</_></rects>
      <tilted>0</tilted></_>
    <_>
      <rects>
        <_>
          10 8 6 8 -1.</_>
        <_>
          12 8 2 8 3.</_></rects>
      <tilted>0</tilted></_>
    <_>
      <rects>
        <_>
          11 17 13 6 -1.</_>
        <_>
          11 19 13 2 3.</_></rects>
      <tilted>0</tilted></_>
    <_>
      <rects>
        <_>
          12 1 4 8 -1.</_>
        <_>
          12 1 2 4 2.</_>
        <_>
          14 5 2 4 2.</_></rects>
      <tilted>0</tilted></_>
    <_>
      <rects>
        <_>
          12 4 3 12 -1.</_>
        <_>
          12 8 3 4 3.</_></rects>
      <tilted>0</tilted></_>
    <_>
      <rects>
        <_>
          13 3 5 21 -1.</_>
        <_>
          13 10 5 7 3.</_></rects>
      <tilted>0</tilted></_>
    <_>
      <rects>
        <_>
          13 11 8 12 -1.</_>
        <_>
          13 15 8 4 3.</_></rects>
      <tilted>0</tilted></_>
    <_>
      <rects>
        <_>
          15 7 11 3 -1.</_>
        <_>
          15 8 11 1 3.</_></rects>
      <tilted>0</tilted></_>
    <_>
      <rects>
        <_>
          17 0 14 12 -1.</_>
        <_>
          17 0 7 6 2.</_>
        <_>
          24 6 7 6 2.</_></rects>
      <tilted>0</tilted></_>
    <_>
      <rects>
        <_>
          18 1 10 14 -1.</_>
        <_>
          18 1 5 7 2.</_>
        <_>
          23 8 5 7 2.</_></rects>
      <tilted>0</tilted></_>
    <_>
      <rects>
        <_>
          22 0 3 2 -1.</_>
        <_>
          22 1 3 1 2.</_></rects>
      <tilted>0</tilted></_>
    <_>
      <rects>
        <_>
          24 0 2 1 -1.</_>
        <_>
          25 0 1 1 2.</_></rects>
      <tilted>0</tilted></_>
    <_>
      <rects>
        <_>
          24 16 1 2 -1.</_>
        <_>
          24 17 1 1 2.</_></rects>
      <tilted>0</tilted></_>
    <_>
      <rects>
        <_>
          24 22 4 1 -1.</_>
        <_>
          26 22 2 1 2.</_></rects>
      <tilted>0</tilted></_>
    <_>
      <rects>
        <_>
          25 4 4 2 -1.</_>
        <_>
          27 4 2 2 2.</_></rects>
      <tilted>0</tilted></_>
    <_>
      <rects>
        <_>
          26 6 2 12 -1.</_>
        <_>
          26 6 1 6 2.</_>
        <_>
          27 12 1 6 2.</_></rects>
      <tilted>0</tilted></_>
    <_>
      <rects>
        <_>
          26 9 2 1 -1.</_>
        <_>
          27 9 1 1 2.</_></rects>
      <tilted>0</tilted></_>
    <_>
      <rects>
        <_>
          26 9 3 1 -1.</_>
        <_>
          27 9 1 1 3.</_></rects>
      <tilted>0</tilted></_>
    <_>
      <rects>
        <_>
          26 18 6 3 -1.</_>
        <_>
          29 18 3 3 2.</_></rects>
      <tilted>0</tilted></_>
    <_>
      <rects>
        <_>
          28 0 4 2 -1.</_>
        <_>
          30 0 2 2 2.</_></rects>
      <tilted>0</tilted></_>
    <_>
      <rects>
        <_>
          28 6 2 2 -1.</_>
        <_>
          29 6 1 2 2.</_></rects>
      <tilted>0</tilted></_>
    <_>
      <rects>
        <_>
          29 3 1 4 -1.</_>
        <_>
          29 5 1 2 2.</_></rects>
      <tilted>0</tilted></_>
    <_>
      <rects>
        <_>
          29 12 2 6 -1.</_>
        <_>
          30 12 1 6 2.</_></rects>
      <tilted>0</tilted></_>
    <_>
      <rects>
        <_>
          29 22 3 2 -1.</_>
        <_>
          30 22 1 2 3.</_></rects>
      <tilted>0</tilted></_>
    <_>
      <rects>
        <_>
          29 23 3 1 -1.</_>
        <_>
          30 23 1 1 3.</_></rects>
      <tilted>0</tilted></_>
    <_>
      <rects>
        <_>
          30 2 1 6 -1.</_>
        <_>
          30 5 1 3 2.</_></rects>
      <tilted>0</tilted></_>
    <_>
      <rects>
        <_>
          30 22 2 2 -1.</_>
        <_>
          31 22 1 2 2.</_></rects>
      <tilted>0</tilted></_>
    <_>
      <rects>
        <_>
          30 22 2 2 -1.</_>
        <_>
          30 23 2 1 2.</_></rects>
      <tilted>0</tilted></_></features></cascade>
</opencv_storage>
